encog,BasicNetwork,java,3.2.0,1,1379235943600
[BASIC]
[BASIC:PARAMS]
[BASIC:NETWORK]
beginTraining=0
connectionLimit=0
contextTargetOffset=0,0,0
contextTargetSize=0,0,0
endTraining=2
hasContext=f
inputCount=13
layerCounts=3,19,14
layerFeedCounts=3,18,13
layerContextCount=0,0,0
layerIndex=0,3,22
output=0,0,0,0,0,0,0,0,0,0,0,0,0,0,0,0,0,0,0,0,0,1,0,0,0,0,0,0,0,0,0,0,0,0,0,1
outputCount=3
weightIndex=0,57,309
weights=0.3277287263,0.5389420256,-0.4439102309,-0.4759040166,-0.470729197,0.7906178816,0.8014330116,0.7973686243,-0.2803513197,-0.3635215948,0.7826852614,0.4551089692,-0.5759475138,-0.5123133863,-0.2799527523,0.7172440853,-0.5112976014,0.0905062628,-0.6484790192,0.8768484293,-0.3005384616,-0.4631423188,0.2422991752,0.5010470918,0.1899015953,0.3933019833,-0.4021400658,0.1233450671,-1.3602530975,0.415353786,0.5502646291,-0.2130687229,-0.14987433,-0.090461378,0.2622434784,0.5739755764,0.7852489028,-2.0274443906,0.7571072719,-0.5044801079,-0.0575780513,-0.281984257,0.4915239851,-0.5039341651,-0.2871115123,0.0880251456,-0.0619698158,-0.8471226892,0.2649802772,0.3659231815,0.6749731214,-0.3610720046,0.370431665,-0.5578847729,0.2531863412,-0.0343030228,-1.0448952926,0.1261505739,-0.3502880193,0.1990223642,1.0076485261,0.713047084,0.0177140777,1.0463263411,-0.1231458151,0.3932380387,-0.2715841279,0.1977723269,0.7702313236,0.5043476884,-2.2558387302,0.081283384,-0.1780776392,0.6370890281,0.8845279555,0.3249636186,-0.4121328151,-0.7400187674,0.1600933111,0.2838827,-0.4682169331,0.8655879378,-0.5198652253,-0.5833242989,1.0031273936,-0.0108629599,1.437326103,-0.1603364592,1.3023227318,1.7432261037,0.7837796974,0.082250063,1.3118529652,1.7338431796,0.6943426778,0.3426001782,0.8906569729,1.4332889492,-0.8743845982,-0.370772438,-0.4472753598,-0.5521494635,0.3988007234,0.0063209389,-0.5525757291,0.5696710575,-0.4749836626,0.3444540647,-0.1684057009,-0.2453950614,-0.0002046057,-0.7183018404,0.7440124765,0.59306031,-0.3338482785,0.6807171074,0.6026932505,0.4715092351,0.6143159025,-0.2957749246,-0.3695453352,-0.437475063,0.7109164759,0.833091212,0.568268267,0.4518431657,0.6261202321,0.5939927368,0.252133899,-0.2305337205,-0.3550480289,0.8849643215,0.7992422894,-0.411902822,0.639652818,-0.0297646603,0.0745008093,-0.0110178097,0.130684366,0.5823572306,-1.9627353981,-0.096046088,0.1527748994,0.4948921596,0.285656652,0.3334588242,0.0158370728,0.5674100718,0.981100132,0.0533438559,-0.5141536528,0.7948581331,0.2738806773,0.2640974165,-1.0549707669,0.0874318821,-0.2203314006,-0.6290513827,0.7620252956,-0.524501538,0.7098115807,0.0120468007,0.7296586235,0.881455449,-0.6697338891,-0.0406564252,0.9729478933,0.9430745542,-0.9597838402,0.1212952107,0.6515563279,0.7066413117,-0.3609386776,0.1653907205,-0.5672849408,-0.7080165453,0.2521831326,0.7433430819,-0.7190602097,-0.367949402,0.3859516273,0.1986703294,0.7714106251,-1.7109567369,-0.364571627,-1.2152956096,-1.8029880776,-1.0561493175,-1.6881379093,-1.6920769383,-0.6645010527,-0.4152458967,-1.0753452034,-0.9020053232,-1.0950654911,-0.8114250145,-3.1411533981,0.0970076813,0.6579372943,-0.2692893667,1.0549850985,-0.7289995931,0.0107749232,0.1324170132,0.2628142387,0.4777166307,0.6048428427,-0.9010367672,-0.4352802481,1.0067376842,-1.3390169471,0.7818651343,1.2756696353,-0.213538986,0.5269077613,-0.6189476587,0.5959541898,0.6752287252,0.093781676,-0.400624973,0.0242421927,0.1664001422,0.1624189143,-0.4067898757,-2.5555452327,1.0505446958,0.2312309883,-0.6453523192,0.9185475645,1.0161065291,0.4223125769,0.8940810802,-0.1543369025,0.3463435817,0.1876348355,0.2212434516,0.61243385,0.5224955423,-0.2419885637,1.0038862775,1.0554109079,1.2000143641,0.8914594083,0.2160378565,0.1994963761,-0.0888364039,0.3650224779,0.7260183083,1.5092609725,0.2811166869,1.311567462,-0.198088901,1.2975520879,0.8794811651,0.6641507332,0.0685425885,-0.4913497736,0.8198924568,0.9783088257,-0.4973591453,0.9290231768,-0.6102780227,0.0980182217,0.5418284102,0.9332115312,0.4199837882,-0.8262907705,0.8533283219,-0.1885860619,1.0620785482,0.0682997895,0.1942924029,0.9281583763,0.9661109993,-0.5346535821,0.8641238435,-0.348507177,0.6170156999,-0.45079109,-0.4948658533,-1.8699690783,0.0494436057,0.0564518929,-0.2064616002,0.649155303,-0.6084741796,-0.2544766281,0.9297856695,-0.4462225189,1.0587415503,-0.5182755921,0.1020581492,-0.104748607,0.8735509993,-1.2170047142,-0.0051903951,0.0761470365,1.0238870543,-0.3021908332,-0.3836057484,0.8068958141,0.9889696264,0.641790606,0.5074657894,0.8648714213,0.389842566,0.9224442005,0.0032064927,0.2821849398
biasActivation=0,1,1
[BASIC:ACTIVATION]
"ActivationSigmoid"
"ActivationSigmoid"
"ActivationLinear"
