encog,BasicNetwork,java,3.2.0,1,1379235981988
[BASIC]
[BASIC:PARAMS]
[BASIC:NETWORK]
beginTraining=0
connectionLimit=0
contextTargetOffset=0,0,0
contextTargetSize=0,0,0
endTraining=2
hasContext=f
inputCount=13
layerCounts=3,19,14
layerFeedCounts=3,18,13
layerContextCount=0,0,0
layerIndex=0,3,22
output=0,0,0,0,0,0,0,0,0,0,0,0,0,0,0,0,0,0,0,0,0,1,0,0,0,0,0,0,0,0,0,0,0,0,0,1
outputCount=3
weightIndex=0,57,309
weights=1.2284025594,0.2873439522,-0.8488998132,-0.3745120432,0.9542524522,0.2015313576,-1.890332394,-0.322709072,0.0566022095,-0.3060037537,-0.0272499987,0.6004244468,0.3637840758,0.2649380205,-0.3578820006,-0.1364373059,0.6943161041,0.9244518661,-1.7479887216,-0.5681835144,-0.4324034428,-1.0118016415,-1.020444736,0.3060431732,-0.4729862434,-3.6533749502,0.438590057,-0.4476433109,-0.312820601,0.6732400102,-1.2180572934,-0.5585499566,-0.0192183684,-0.4479082932,0.5876561372,-0.1264288236,-0.733007954,0.565453668,0.6631755603,0.6058461077,-1.1812814065,-1.1721955122,-0.6895331161,0.0401495571,-3.9583646964,-0.5528634927,0.0505062829,-1.095197757,0.5053926483,-0.564219653,-0.1257118312,0.4366822553,0.6874621354,0.3238454849,-1.0753063433,-0.371890001,-0.2888086217,-0.0603436435,0.6849798214,0.4122373974,0.6852630509,0.389107949,0.2220792512,-0.5443933327,-0.8614172866,0.2419728286,0.2525405776,0.3158194641,0.1806969167,0.6554830531,-1.8079209671,-0.39407618,0.775978758,0.3649695661,0.1564508529,-0.5883104564,0.6104984006,-0.2133829676,-0.6818206375,0.5259447761,-0.1990665653,-0.0671795546,-0.4277361933,-0.3189959687,-1.0839389168,-1.2770619695,-0.1351379464,0.0185586312,-1.2656025179,-0.3416560072,-0.1964883376,-0.2395748266,0.3408497004,0.7328628461,-0.8063545,-0.6093206901,-1.1406342919,-1.0926911389,0.8069940905,0.0637899448,-0.2908001946,-1.2474063063,-0.8244539603,-0.6446752335,-0.3447702573,-0.1985296869,-0.0694145276,-0.8533766186,-0.2972685379,0.3335552792,-1.3374827412,-0.2779786068,-0.4498771924,0.3668342243,0.2554387876,-0.3732802319,-0.1573068553,-0.204449408,0.5247852194,0.0335622277,0.0011460751,0.9143047931,0.8944194771,-0.0466989679,0.3031533486,0.5038683018,-1.811524177,-0.2952369172,0.7179970701,0.5032674365,-0.610355664,0.1497732027,1.1093288128,0.5406140051,1.2188922564,0.2713090371,0.3783748524,0.4306088729,0.3541979673,0.2877281655,-1.0128375104,-2.4227209506,-2.343808578,-0.9002098355,-4.7743310842,-0.4633729892,-1.1898169339,-0.9824099288,-0.5142608626,-1.4066634552,-0.0234151093,0.0788653656,-0.9134211505,-2.4000616975,-2.641701886,0.9019318519,0.4938851063,0.8057506261,0.6466398203,0.6835165725,0.0303419857,0.3685057845,0.1333723562,1.0425786568,0.2414899834,0.7395836569,0.2324599307,-0.1792463774,-0.0142011659,-0.6305230916,-0.1051839108,-1.1972335446,-0.9007347243,0.6418178395,-0.9249203603,0.2181447683,-0.0974100231,-0.7103336143,-0.3798472625,0.6327855777,-0.3763601699,0.1792453855,-2.5900177257,-0.6461553465,-0.4029745347,0.1172786745,-2.1229013282,0.1847627156,-0.3041807722,0.6021562126,0.4406471711,0.2710393653,0.685262352,0.514379715,-0.6519317686,-0.1318213207,0.0176441945,0.6003348124,0.1717635294,0.7646574994,1.2774237042,0.760962107,0.3065533605,-0.1469325242,-0.7224740224,-0.7473331544,0.3871519786,-0.2670214574,0.8649496997,0.3327623967,-0.704182346,0.1697932464,0.571074046,0.1125611569,0.2702918441,-0.2582848353,-0.7818746665,-1.7745324996,-0.3140647855,-1.9737810108,-0.5535839424,-1.0351039598,-0.6395355053,0.1011489416,-1.4052609189,0.1246782632,0.5962253144,0.0647039438,1.126227617,-0.1417503119,-0.3020501901,0.1902276164,1.3287600139,0.7835939252,0.0079879361,0.7079469667,1.2168012474,0.914369159,0.0077400157,0.6130044571,0.5269367909,-0.3448410765,0.3920836991,0.3775582819,0.0057885499,-0.7465919704,-0.9502586184,0.0348222338,0.3547182272,-0.9793905153,0.1469467177,0.6968701553,0.353234557,-0.0763740141,0.9981624175,1.1646091864,-0.561943434,1.1201814328,0.6038327628,-0.4049932769,0.9716839624,0.4445514311,-0.0569695976,0.9244170227,0.6718086238,-0.5139601934,0.5571610512,0.1273452761,0.9259109689,1.3752120563,-0.1582652001,0.3466601731,-0.2553902046,-0.7476066146,0.619508793,-0.1519513191,0.0836589733,0.4345511057,-0.1976587712,1.1808959675,-1.2497808248,-0.6249928139,0.7302735007,0.4615546792,-0.5747241666,-1.305433244,-0.9258523891,-0.2196621432,-0.7024331544,-0.3017245845,-0.7459396178,-1.4570947474,0.4454380932,0.4779650364,-3.1590642512,0.5774120889,-0.0956609602,0.750517744,0.2956713403,-0.0380507441,0.8080333676,0.9627254665,0.4566295072,0.8997330718,0.936185226,0.6796295126,0.1409865585,-0.2265715903,-1.8776145174
biasActivation=0,1,1
[BASIC:ACTIVATION]
"ActivationSigmoid"
"ActivationSigmoid"
"ActivationLinear"
